<?xml version="1.0"?>
<opencv_storage>
<cascade>
  <stageType>BOOST</stageType>
  <featureType>HAAR</featureType>
  <height>30</height>
  <width>30</width>
  <stageParams>
    <boostType>GAB</boostType>
    <minHitRate>9.9500000476837158e-01</minHitRate>
    <maxFalseAlarm>5.0000000000000000e-01</maxFalseAlarm>
    <weightTrimRate>9.4999998807907104e-01</weightTrimRate>
    <maxDepth>1</maxDepth>
    <maxWeakCount>100</maxWeakCount></stageParams>
  <featureParams>
    <maxCatCount>0</maxCatCount>
    <featSize>1</featSize>
    <mode>BASIC</mode></featureParams>
  <stageNum>5</stageNum>
  <stages>
    <!-- stage 0 -->
    <_>
      <maxWeakCount>5</maxWeakCount>
      <stageThreshold>-1.5107656717300415e+00</stageThreshold>
      <weakClassifiers>
        <_>
          <internalNodes>
            0 -1 17 1.6915561258792877e-01</internalNodes>
          <leafValues>
            -8.5714286565780640e-01 8.7052810192108154e-01</leafValues></_>
        <_>
          <internalNodes>
            0 -1 1 5.8963619172573090e-02</internalNodes>
          <leafValues>
            -7.5494748353958130e-01 7.7783435583114624e-01</leafValues></_>
        <_>
          <internalNodes>
            0 -1 22 6.4269527792930603e-02</internalNodes>
          <leafValues>
            -7.1460270881652832e-01 4.7795772552490234e-01</leafValues></_>
        <_>
          <internalNodes>
            0 -1 6 3.3104172907769680e-03</internalNodes>
          <leafValues>
            3.0709883570671082e-01 -8.2736337184906006e-01</leafValues></_>
        <_>
          <internalNodes>
            0 -1 0 -6.1190389096736908e-03</internalNodes>
          <leafValues>
            5.0882852077484131e-01 -5.7003986835479736e-01</leafValues></_></weakClassifiers></_>
    <!-- stage 1 -->
    <_>
      <maxWeakCount>6</maxWeakCount>
      <stageThreshold>-1.4724135398864746e+00</stageThreshold>
      <weakClassifiers>
        <_>
          <internalNodes>
            0 -1 9 1.4661169052124023e-01</internalNodes>
          <leafValues>
            -8.6159694194793701e-01 8.3720928430557251e-01</leafValues></_>
        <_>
          <internalNodes>
            0 -1 8 8.6550511419773102e-02</internalNodes>
          <leafValues>
            -6.8919569253921509e-01 6.7656993865966797e-01</leafValues></_>
        <_>
          <internalNodes>
            0 -1 12 1.4905062317848206e-01</internalNodes>
          <leafValues>
            -6.1621344089508057e-01 5.9424823522567749e-01</leafValues></_>
        <_>
          <internalNodes>
            0 -1 19 -4.0045157074928284e-02</internalNodes>
          <leafValues>
            4.9929469823837280e-01 -4.7537595033645630e-01</leafValues></_>
        <_>
          <internalNodes>
            0 -1 11 4.6354182064533234e-02</internalNodes>
          <leafValues>
            -4.1577288508415222e-01 5.8108854293823242e-01</leafValues></_>
        <_>
          <internalNodes>
            0 -1 2 1.3796447310596704e-03</internalNodes>
          <leafValues>
            -3.2212707400321960e-01 5.8887994289398193e-01</leafValues></_></weakClassifiers></_>
    <!-- stage 2 -->
    <_>
      <maxWeakCount>7</maxWeakCount>
      <stageThreshold>-2.0542542934417725e+00</stageThreshold>
      <weakClassifiers>
        <_>
          <internalNodes>
            0 -1 15 2.1168494224548340e-01</internalNodes>
          <leafValues>
            -7.9912024736404419e-01 8.3363473415374756e-01</leafValues></_>
        <_>
          <internalNodes>
            0 -1 13 6.1849959194660187e-02</internalNodes>
          <leafValues>
            -6.6887021064758301e-01 6.3356864452362061e-01</leafValues></_>
        <_>
          <internalNodes>
            0 -1 25 -1.4014767948538065e-03</internalNodes>
          <leafValues>
            4.8315775394439697e-01 -7.1737015247344971e-01</leafValues></_>
        <_>
          <internalNodes>
            0 -1 27 6.4440526068210602e-02</internalNodes>
          <leafValues>
            -5.9415900707244873e-01 6.5040433406829834e-01</leafValues></_>
        <_>
          <internalNodes>
            0 -1 23 9.7246852237731218e-04</internalNodes>
          <leafValues>
            -4.0343421697616577e-01 6.8764013051986694e-01</leafValues></_>
        <_>
          <internalNodes>
            0 -1 14 1.3343700265977532e-04</internalNodes>
          <leafValues>
            -4.4417247176170349e-01 5.3719645738601685e-01</leafValues></_>
        <_>
          <internalNodes>
            0 -1 5 -2.0055091008543968e-03</internalNodes>
          <leafValues>
            3.7234398722648621e-01 -6.5216708183288574e-01</leafValues></_></weakClassifiers></_>
    <!-- stage 3 -->
    <_>
      <maxWeakCount>5</maxWeakCount>
      <stageThreshold>-2.1094048023223877e+00</stageThreshold>
      <weakClassifiers>
        <_>
          <internalNodes>
            0 -1 7 2.2671058773994446e-01</internalNodes>
          <leafValues>
            -9.2261391878128052e-01 5.8885943889617920e-01</leafValues></_>
        <_>
          <internalNodes>
            0 -1 18 1.2800800614058971e-02</internalNodes>
          <leafValues>
            -7.3420888185501099e-01 6.9472187757492065e-01</leafValues></_>
        <_>
          <internalNodes>
            0 -1 20 1.6080655157566071e-01</internalNodes>
          <leafValues>
            -4.7913178801536560e-01 9.0290510654449463e-01</leafValues></_>
        <_>
          <internalNodes>
            0 -1 4 1.8289874424226582e-04</internalNodes>
          <leafValues>
            -8.5926949977874756e-01 3.8949367403984070e-01</leafValues></_>
        <_>
          <internalNodes>
            0 -1 26 -6.2306015752255917e-04</internalNodes>
          <leafValues>
            5.1936858892440796e-01 -6.2565404176712036e-01</leafValues></_></weakClassifiers></_>
    <!-- stage 4 -->
    <_>
      <maxWeakCount>5</maxWeakCount>
      <stageThreshold>-2.0334756374359131e+00</stageThreshold>
      <weakClassifiers>
        <_>
          <internalNodes>
            0 -1 10 2.5586664676666260e-01</internalNodes>
          <leafValues>
            -7.7174669504165649e-01 1.</leafValues></_>
        <_>
          <internalNodes>
            0 -1 16 2.1301075816154480e-02</internalNodes>
          <leafValues>
            -5.7594746351242065e-01 1.</leafValues></_>
        <_>
          <internalNodes>
            0 -1 24 3.5483933985233307e-02</internalNodes>
          <leafValues>
            -8.3904933929443359e-01 6.7157471179962158e-01</leafValues></_>
        <_>
          <internalNodes>
            0 -1 21 -7.9641619231551886e-04</internalNodes>
          <leafValues>
            4.9750921130180359e-01 -9.0630334615707397e-01</leafValues></_>
        <_>
          <internalNodes>
            0 -1 3 -1.1884837877005339e-03</internalNodes>
          <leafValues>
            9.3246638774871826e-01 -5.1637631654739380e-01</leafValues></_></weakClassifiers></_></stages>
  <features>
    <_>
      <rects>
        <_>
          0 0 30 1 -1.</_>
        <_>
          15 0 15 1 2.</_></rects>
      <tilted>0</tilted></_>
    <_>
      <rects>
        <_>
          0 12 27 8 -1.</_>
        <_>
          9 12 9 8 3.</_></rects>
      <tilted>0</tilted></_>
    <_>
      <rects>
        <_>
          0 18 4 5 -1.</_>
        <_>
          2 18 2 5 2.</_></rects>
      <tilted>0</tilted></_>
    <_>
      <rects>
        <_>
          0 26 14 2 -1.</_>
        <_>
          0 27 14 1 2.</_></rects>
      <tilted>0</tilted></_>
    <_>
      <rects>
        <_>
          1 3 27 1 -1.</_>
        <_>
          10 3 9 1 3.</_></rects>
      <tilted>0</tilted></_>
    <_>
      <rects>
        <_>
          1 23 14 4 -1.</_>
        <_>
          1 25 14 2 2.</_></rects>
      <tilted>0</tilted></_>
    <_>
      <rects>
        <_>
          1 23 26 4 -1.</_>
        <_>
          1 25 26 2 2.</_></rects>
      <tilted>0</tilted></_>
    <_>
      <rects>
        <_>
          2 3 27 20 -1.</_>
        <_>
          2 13 27 10 2.</_></rects>
      <tilted>0</tilted></_>
    <_>
      <rects>
        <_>
          2 9 27 11 -1.</_>
        <_>
          11 9 9 11 3.</_></rects>
      <tilted>0</tilted></_>
    <_>
      <rects>
        <_>
          2 10 18 15 -1.</_>
        <_>
          2 15 18 5 3.</_></rects>
      <tilted>0</tilted></_>
    <_>
      <rects>
        <_>
          2 10 28 15 -1.</_>
        <_>
          2 15 28 5 3.</_></rects>
      <tilted>0</tilted></_>
    <_>
      <rects>
        <_>
          3 3 22 24 -1.</_>
        <_>
          3 3 11 12 2.</_>
        <_>
          14 15 11 12 2.</_></rects>
      <tilted>0</tilted></_>
    <_>
      <rects>
        <_>
          3 3 22 20 -1.</_>
        <_>
          3 13 22 10 2.</_></rects>
      <tilted>0</tilted></_>
    <_>
      <rects>
        <_>
          3 11 11 12 -1.</_>
        <_>
          3 15 11 4 3.</_></rects>
      <tilted>0</tilted></_>
    <_>
      <rects>
        <_>
          3 15 2 2 -1.</_>
        <_>
          4 15 1 2 2.</_></rects>
      <tilted>0</tilted></_>
    <_>
      <rects>
        <_>
          4 6 21 14 -1.</_>
        <_>
          4 13 21 7 2.</_></rects>
      <tilted>0</tilted></_>
    <_>
      <rects>
        <_>
          6 3 10 22 -1.</_>
        <_>
          11 3 5 22 2.</_></rects>
      <tilted>0</tilted></_>
    <_>
      <rects>
        <_>
          7 5 17 16 -1.</_>
        <_>
          7 13 17 8 2.</_></rects>
      <tilted>0</tilted></_>
    <_>
      <rects>
        <_>
          8 9 10 7 -1.</_>
        <_>
          13 9 5 7 2.</_></rects>
      <tilted>0</tilted></_>
    <_>
      <rects>
        <_>
          9 1 3 18 -1.</_>
        <_>
          9 7 3 6 3.</_></rects>
      <tilted>0</tilted></_>
    <_>
      <rects>
        <_>
          11 10 18 15 -1.</_>
        <_>
          11 15 18 5 3.</_></rects>
      <tilted>0</tilted></_>
    <_>
      <rects>
        <_>
          12 2 1 8 -1.</_>
        <_>
          12 6 1 4 2.</_></rects>
      <tilted>0</tilted></_>
    <_>
      <rects>
        <_>
          13 2 16 24 -1.</_>
        <_>
          13 14 16 12 2.</_></rects>
      <tilted>0</tilted></_>
    <_>
      <rects>
        <_>
          15 2 10 3 -1.</_>
        <_>
          15 3 10 1 3.</_></rects>
      <tilted>0</tilted></_>
    <_>
      <rects>
        <_>
          18 2 10 26 -1.</_>
        <_>
          18 15 10 13 2.</_></rects>
      <tilted>0</tilted></_>
    <_>
      <rects>
        <_>
          19 13 8 6 -1.</_>
        <_>
          23 13 4 6 2.</_></rects>
      <tilted>0</tilted></_>
    <_>
      <rects>
        <_>
          20 0 2 22 -1.</_>
        <_>
          21 0 1 22 2.</_></rects>
      <tilted>0</tilted></_>
    <_>
      <rects>
        <_>
          21 9 9 21 -1.</_>
        <_>
          21 16 9 7 3.</_></rects>
      <tilted>0</tilted></_></features></cascade>
</opencv_storage>
